svm_type c_svc
kernel_type rbf
gamma 0.0526316
nr_class 2
total_sv 19
rho -0.280347
label 0 1
nr_sv 10 9
SV
0.5796571618904652 1:2017 2:1 3:1 4:23 5:0 6:0 7:-0.525424 8:6.493867 9:-0.643467 10:0.169724 11:1.714082 12:0.404618 13:3.373597 14:-0.413608 15:4.571579 16:-0.501251 17:-0.178462 18:2.050103 19:1.089703 
0.4931684765337598 1:2017 2:1 3:4 4:23 5:0 6:0 7:1.070788 8:6.123567 9:0.384814 10:0.590604 11:-0.679929 12:-0.326787 13:2.961192 14:0.564833 15:4.096594 16:-2.364768 17:-0.03035 18:2.042879 19:2.025728 
0.6359978247379525 1:2017 2:1 3:7 4:23 5:0 6:0 7:-1.34056 8:4.625202 9:0.989808 10:-0.148091 11:0.570828 12:0.564458 13:3.059893 14:0.51136 15:6.420578 16:-0.199439 17:-0.508123 18:2.559293 19:0.843043 
0.5084108406294602 1:2017 2:1 3:12 4:23 5:0 6:0 7:0.643245 8:3.539275 9:-2.1767 10:-0.179532 11:-0.674755 12:-0.223973 13:3.059893 14:0.435964 15:4.803959 16:0.166555 17:-1.161643 18:3.082633 19:-0.321875 
0.4312227426484028 1:2017 2:1 3:15 4:23 5:0 6:0 7:1.034946 8:4.528386 9:-0.607128 10:-0.116139 11:-0.45307 12:0.874026 13:1.288644 14:0.007226 15:5.583323 16:0.31519 17:0.475016 18:3.563663 19:0.102382 
0.5526355772690265 1:2017 2:1 3:18 4:23 5:0 6:0 7:-1.702426 8:6.405993 9:-0.850241 10:-0.675329 11:0.826776 12:2.142784 13:3.394254 14:0.907828 15:4.780595 16:-1.133518 17:1.013135 18:1.946952 19:0.268746 
0.5253480803241125 1:2017 2:1 3:21 4:23 5:0 6:0 7:-0.510686 8:5.792188 9:0.02844 10:1.693678 11:0.906466 12:-0.541854 13:2.062472 14:-1.514822 15:3.858549 16:-0.765439 17:0.236146 18:2.679935 19:1.046528 
0.5933326676812083 1:2017 2:1 3:25 4:23 5:0 6:0 7:-2.47927 8:6.723474 9:0.640266 10:2.934382 11:0.775018 12:-0.761977 13:2.616579 14:-0.080773 15:4.393476 16:2.494623 17:0.501458 18:2.255025 19:-0.529327 
0.4825859740034807 1:2017 2:1 3:29 4:23 5:0 6:0 7:0.592745 8:6.930063 9:-0.782375 10:1.187699 11:-0.169241 12:0.435504 13:3.012456 14:-0.216171 15:3.644286 16:-0.45266 17:-0.062614 18:0.960787 19:-0.20626 
0.5814514075795365 1:2017 2:1 3:31 4:23 5:0 6:0 7:1.803917 8:5.723899 9:0.182711 10:0.310909 11:0.806219 12:-0.252922 13:3.216179 14:0.465934 15:6.066923 16:0.213578 17:-0.84951 18:2.175566 19:1.51738 
-0.7501509803734062 1:2017 2:6 3:5 4:23 5:0 6:0 7:1 8:8.8 9:2 10:0.9 11:3.2 12:0.5 13:3.9 14:0.3 15:5 16:0.28 17:0.22 18:3.6 19:0.1 
-0.2781705440126421 1:2017 2:6 3:6 4:23 5:0 6:0 7:1.6 8:9 9:3.1 10:0.6 11:2 12:0.3 13:3.3 14:0.35 15:6.7 16:0.3 17:0.25 18:3.9 19:0.15 
-0.7867696740914818 1:2017 2:6 3:7 4:23 5:0 6:0 7:0.9 8:7.9 9:1 10:0.3 11:1.9 12:0.2 13:3 14:0.2 15:7 16:0.32 17:0.3 18:4.1 19:0.2 
-0.5973216034173939 1:2017 2:7 3:15 4:23 5:0 6:0 7:1.3 8:11.5 9:2.6 10:0.5 11:4.1 12:0.6 13:2.7 14:0.25 15:6.2 16:0.5 17:0.17 18:4.2 19:0.19 
-0.2992111097809406 1:2017 2:7 3:16 4:23 5:0 6:0 7:0.8 8:12.1 9:3.3 10:0.7 11:3.7 12:0.4 13:3.3 14:0.3 15:5.1 16:0.53 17:0.2 18:4.4 19:0.14 
-0.7388268434010106 1:2017 2:7 3:17 4:23 5:0 6:0 7:1.7 8:10.4 9:1.9 10:0.4 11:2.9 12:0.2 13:3.5 14:0.41 15:4.8 16:0.39 17:0.23 18:4.6 19:0.12 
-0.9564290040624273 1:2017 2:8 3:28 4:23 5:0 6:0 7:1.7 8:7.5 9:2.1 10:1 11:4.7 12:0.9 13:4.1 14:0.21 15:4.3 16:0.4 17:0.3 18:3.9 19:0.2 
-0.008059810461293003 1:2017 2:8 3:29 4:23 5:0 6:0 7:1.9 8:6.9 9:1.8 10:1.1 11:4.2 12:0.7 13:4.3 14:0.19 15:5 16:0.45 17:0.33 18:4.7 19:0.21 
-0.9688711836968096 1:2017 2:8 3:31 4:23 5:0 6:0 7:2.1 8:9.1 9:1.5 10:0.7 11:2.8 12:0.4 13:3 14:0.14 15:6 16:0.6 17:0.4 18:4.6 19:0.16 
